~o
<STREAMINFO> 1 75
<VECSIZE> 75<NULLD><MFCC_E_D_A><DIAGC>
~h "bird"
<BEGINHMM>
<NUMSTATES> 6
<STATE> 2
<MEAN> 75
 -4.392948e+01 -1.914582e+01 -5.048665e+00 -7.828732e+00 -3.847246e+00 -4.443406e+00 2.087731e-01 1.445545e+00 1.441690e-01 -5.648257e+00 3.607055e+00 -4.211264e+00 -2.770549e+00 -7.999979e-01 -8.726534e-01 -3.208928e+00 -2.290285e+00 -4.130393e+00 9.081190e-01 -6.392489e+00 -2.885728e+00 -2.779451e+00 -3.062814e+00 -5.276653e+00 5.732101e-01 -2.506243e-02 1.850742e-01 5.461171e-01 -3.359052e-01 2.403428e-01 1.832635e-01 -1.772571e-01 7.022396e-02 -1.242144e-01 -8.569095e-02 1.524935e-01 -3.873914e-01 3.587846e-01 -1.116339e-01 -1.746814e-01 7.432812e-02 -6.977353e-02 -1.501833e-01 3.120800e-01 -3.541292e-01 4.113574e-02 1.279648e-01 -2.804613e-01 1.492728e-01 1.319339e-02 -4.122946e-03 2.353022e-02 3.150478e-02 -5.636795e-03 2.072109e-02 -5.120552e-03 1.321047e-02 -9.519822e-03 -2.239916e-02 2.470169e-02 1.141601e-02 -6.205782e-02 6.554401e-02 -3.696919e-02 -1.271006e-02 1.136111e-02 -8.410171e-03 1.078386e-02 1.128198e-03 -2.020796e-02 3.135264e-02 -1.507935e-02 -1.225045e-02 2.382128e-02 8.281994e-04
<VARIANCE> 75
 7.656205e+01 7.854009e+01 2.926505e+02 1.982214e+02 1.871105e+02 1.847726e+02 2.019502e+02 2.152500e+02 2.230683e+02 2.621296e+02 3.121779e+02 3.017462e+02 2.700077e+02 2.160027e+02 1.861380e+02 1.485625e+02 1.475124e+02 1.538195e+02 1.609224e+02 1.533715e+02 1.470015e+02 1.379411e+02 1.239157e+02 1.033595e+02 4.314754e-02 1.596925e+00 2.291281e+00 3.901077e+00 4.480667e+00 4.650554e+00 5.214759e+00 7.032263e+00 8.215403e+00 9.883355e+00 1.351408e+01 1.561941e+01 1.593403e+01 1.724399e+01 1.496730e+01 1.287731e+01 1.157788e+01 1.186002e+01 1.300628e+01 1.328934e+01 1.317795e+01 1.194186e+01 1.116542e+01 1.040607e+01 9.067569e+00 1.137729e-03 2.823429e-01 3.917527e-01 6.321342e-01 7.024789e-01 7.431199e-01 8.648840e-01 1.137364e+00 1.328449e+00 1.677022e+00 2.174471e+00 2.554051e+00 2.683342e+00 2.841806e+00 2.566441e+00 2.364717e+00 2.171708e+00 2.270395e+00 2.464992e+00 2.495021e+00 2.422769e+00 2.212444e+00 2.126583e+00 1.953857e+00 1.719512e+00 1.582995e-04
<GCONST> 3.052153e+02
<STATE> 3
<MEAN> 75
 -4.559363e+01 -1.300924e+01 8.191684e+00 -1.323140e+01 8.199157e-01 -2.902799e+00 2.366117e+00 2.544013e-01 -1.026979e+01 3.967680e+00 2.780908e+00 -1.958958e+01 1.577637e+01 -1.096177e+01 -4.428406e+00 2.178766e+00 -6.861826e+00 -4.108507e+00 6.898177e+00 -1.879318e+01 7.944947e+00 -7.671766e+00 -7.990608e+00 1.291048e+00 8.522093e-01 2.147597e-02 1.609462e-03 -7.399967e-02 2.139279e-02 -6.335627e-02 3.415168e-02 -3.762129e-02 5.623316e-02 3.630211e-02 -5.196909e-02 8.711965e-02 -6.466269e-02 -2.750421e-02 6.510737e-02 -3.163115e-02 1.373318e-02 6.411873e-02 -7.157808e-02 -8.268879e-02 1.186315e-01 -4.830955e-02 2.137316e-02 3.408532e-03 3.175370e-03 -2.370626e-03 1.460813e-03 -3.357504e-02 -3.658403e-02 8.547440e-03 -2.726082e-02 1.797488e-02 -2.530262e-02 -4.102587e-03 7.268663e-02 -6.067308e-02 3.121984e-03 9.744644e-02 -1.200940e-01 6.674437e-02 2.239484e-02 -4.461513e-02 2.830951e-02 -1.588383e-03 -3.312291e-02 5.710026e-02 -4.915747e-02 2.032802e-02 2.972314e-02 -3.633415e-02 -1.062727e-03
<VARIANCE> 75
 3.653486e+01 6.391964e+01 1.431637e+02 7.189703e+01 1.662201e+02 1.087751e+02 1.986537e+02 3.544397e+02 1.804773e+02 2.868727e+02 4.166504e+02 2.495130e+02 1.889438e+02 2.231557e+02 1.729551e+02 1.180838e+02 1.523468e+02 1.796385e+02 1.728641e+02 2.117281e+02 2.159362e+02 1.841523e+02 1.405100e+02 1.071732e+02 1.155498e-02 1.432776e+00 1.642998e+00 1.833279e+00 1.926122e+00 2.230505e+00 2.503662e+00 3.447459e+00 4.347342e+00 5.788163e+00 7.358219e+00 9.501145e+00 1.162112e+01 1.116222e+01 9.579750e+00 7.829262e+00 7.214999e+00 8.517671e+00 1.010099e+01 9.134130e+00 8.229006e+00 8.605896e+00 8.411794e+00 6.798205e+00 6.256831e+00 4.451315e-04 2.695346e-01 2.867059e-01 3.286672e-01 3.497578e-01 4.123017e-01 4.613212e-01 6.129488e-01 7.875032e-01 1.019226e+00 1.300149e+00 1.723898e+00 2.036246e+00 2.038650e+00 1.795122e+00 1.431874e+00 1.351822e+00 1.656992e+00 1.919796e+00 1.698474e+00 1.472618e+00 1.514709e+00 1.526849e+00 1.286787e+00 1.198891e+00 6.089111e-05
<GCONST> 2.780753e+02
<STATE> 4
<MEAN> 75
 -4.276091e+01 -1.300854e+01 6.807569e+00 -1.545190e+01 -4.489565e+00 8.574992e+00 -8.834823e+00 -5.983135e+00 1.773744e+01 -2.025081e+01 5.092302e+00 4.377843e+00 -1.677613e+01 7.336438e+00 -1.602279e+00 -9.543997e+00 1.291575e+00 -3.547166e+00 -4.391654e+00 -1.083501e+00 -5.294283e+00 -6.094758e+00 3.961727e-01 -7.971913e+00 8.356825e-01 1.090799e-02 -7.171925e-02 -1.133668e-01 7.215524e-02 -6.770262e-02 4.176140e-03 -3.163394e-02 1.678209e-02 8.836418e-02 -1.064345e-01 3.793561e-02 1.741070e-01 -3.147785e-01 2.135196e-01 3.803042e-02 -1.469315e-01 5.319737e-02 1.574222e-01 -2.505355e-01 1.770339e-01 2.410389e-02 -2.286618e-01 2.605787e-01 -1.094979e-01 -2.973170e-03 -1.134838e-02 -1.802736e-02 -2.378034e-02 1.250284e-02 -8.728745e-03 -3.553408e-02 3.364635e-02 5.186028e-03 -5.649102e-02 6.556054e-02 -2.707076e-02 -2.075358e-02 5.463789e-02 -4.165795e-02 -5.562495e-04 4.002276e-02 -1.779905e-02 -5.755815e-03 3.027395e-02 -3.065394e-02 2.407715e-02 1.828039e-03 -2.073151e-02 1.660894e-02 -7.590563e-04
<VARIANCE> 75
 3.259066e+01 6.519061e+01 1.186819e+02 7.303246e+01 1.056911e+02 9.079433e+01 1.397815e+02 2.492923e+02 2.003611e+02 2.954745e+02 5.678677e+02 5.113763e+02 3.068334e+02 2.821576e+02 2.153409e+02 1.230720e+02 1.588615e+02 2.220352e+02 2.503824e+02 2.871860e+02 3.281032e+02 2.639750e+02 1.691380e+02 1.286671e+02 1.188261e-02 1.387060e+00 1.964966e+00 2.143410e+00 2.241129e+00 2.714931e+00 3.026872e+00 4.386462e+00 5.482222e+00 7.451963e+00 1.113233e+01 1.277297e+01 1.368807e+01 1.348209e+01 1.137701e+01 9.437674e+00 8.550828e+00 9.510585e+00 1.151181e+01 1.107892e+01 1.036779e+01 1.063268e+01 1.042738e+01 8.815489e+00 7.516076e+00 3.590090e-04 2.612960e-01 3.363876e-01 3.794789e-01 4.137044e-01 4.822385e-01 5.538843e-01 7.716979e-01 9.529694e-01 1.288869e+00 1.855985e+00 2.125779e+00 2.300807e+00 2.292869e+00 1.998797e+00 1.757187e+00 1.662218e+00 1.835351e+00 2.106311e+00 1.911611e+00 1.768898e+00 1.807610e+00 1.805293e+00 1.592077e+00 1.431239e+00 4.713295e-05
<GCONST> 2.889282e+02
<STATE> 5
<MEAN> 75
 -4.284419e+01 -2.037809e+01 -8.635508e+00 -7.430487e+00 -3.232888e+00 -5.182715e+00 -2.546261e+00 1.282691e+00 -1.374153e-01 -3.284373e+00 6.505809e+00 -7.179417e+00 -3.400301e+00 1.324761e+00 -1.623546e+00 -3.063845e+00 -1.740188e+00 -3.741275e+00 -1.335260e+00 -4.547409e+00 -1.398757e+00 -5.447369e+00 -2.034450e+00 -4.351060e+00 5.211705e-01 2.567668e-03 -1.108716e-01 -2.726074e-01 2.108302e-01 -3.679443e-02 -1.912230e-01 1.291521e-01 -1.539999e-01 1.706929e-02 2.377633e-01 -1.984680e-01 1.773779e-01 -9.274246e-03 -1.130603e-01 1.371585e-01 3.884365e-02 -5.868682e-02 2.478628e-02 2.758033e-02 4.251457e-02 -1.023082e-02 4.826027e-02 -5.689456e-03 -1.407842e-02 -5.142230e-03 1.173389e-02 2.808260e-02 2.451047e-02 -1.149859e-02 1.439800e-02 1.312110e-02 -1.693980e-02 2.094701e-03 4.186030e-03 -1.730638e-02 5.221653e-03 -1.903481e-02 5.510776e-03 -8.463555e-04 -1.494622e-02 -4.525986e-03 2.403667e-04 -4.059264e-03 6.057567e-03 -5.188599e-03 -3.381763e-03 -3.869167e-03 1.839910e-03 -7.232859e-04 8.685337e-04
<VARIANCE> 75
 7.145156e+01 6.513483e+01 2.492251e+02 1.598949e+02 1.831773e+02 1.553455e+02 1.850081e+02 1.578736e+02 1.773326e+02 2.144993e+02 1.841131e+02 2.250529e+02 2.084151e+02 1.809824e+02 1.732170e+02 1.494578e+02 1.579716e+02 1.460649e+02 1.498904e+02 1.550464e+02 1.629444e+02 1.387516e+02 1.243183e+02 1.076411e+02 2.520107e-02 9.203897e-01 1.376428e+00 2.089448e+00 2.542642e+00 3.197258e+00 3.731414e+00 4.654330e+00 5.887047e+00 6.991251e+00 8.862884e+00 9.961048e+00 1.154678e+01 1.223134e+01 1.138747e+01 1.044687e+01 1.029744e+01 1.095475e+01 1.144943e+01 1.097513e+01 1.045573e+01 1.021807e+01 1.047573e+01 9.457886e+00 8.485627e+00 3.397662e-04 1.684702e-01 2.437184e-01 3.601600e-01 4.592129e-01 5.630205e-01 6.919784e-01 8.524849e-01 1.073179e+00 1.310383e+00 1.627936e+00 1.912622e+00 2.170014e+00 2.287703e+00 2.181666e+00 2.017758e+00 1.980825e+00 2.120952e+00 2.214539e+00 2.115207e+00 2.022788e+00 1.958028e+00 2.048559e+00 1.846507e+00 1.672945e+00 4.990233e-05
<GCONST> 2.868326e+02
<TRANSP> 6
 0.000000e+00 9.738978e-01 2.610220e-02 0.000000e+00 0.000000e+00 0.000000e+00
 0.000000e+00 9.627144e-01 3.015161e-02 7.133976e-03 0.000000e+00 0.000000e+00
 0.000000e+00 0.000000e+00 9.735739e-01 1.237903e-02 1.404705e-02 0.000000e+00
 0.000000e+00 0.000000e+00 0.000000e+00 9.810033e-01 1.863415e-02 3.625447e-04
 0.000000e+00 0.000000e+00 0.000000e+00 0.000000e+00 9.710740e-01 2.892602e-02
 0.000000e+00 0.000000e+00 0.000000e+00 0.000000e+00 0.000000e+00 0.000000e+00
<ENDHMM>
~h "sig"
<BEGINHMM>
<NUMSTATES> 6
<STATE> 2
<MEAN> 75
 -3.935194e+01 -1.738009e+01 -1.050248e+01 -1.105664e+01 -1.222076e+00 -3.609409e+00 -2.096013e+00 8.853149e+00 -9.644054e-01 -6.731422e+00 6.540115e+00 -1.008889e+01 1.096116e+00 -1.129335e+00 -5.581219e+00 -4.755806e-01 -3.317974e+00 -4.593256e+00 2.481662e+00 -7.629546e+00 -1.960522e+00 -4.007421e+00 -2.758717e+00 -4.094894e+00 6.271259e-01 2.464716e-02 6.437011e-02 1.360142e-01 -4.458816e-02 2.874208e-02 1.045441e-01 -1.434075e-01 2.715748e-02 1.067131e-01 -2.432531e-01 1.716192e-01 3.773743e-03 -1.667964e-01 1.749593e-01 -5.715850e-02 -9.750556e-02 1.113435e-01 -5.403685e-02 -1.016759e-01 1.585940e-01 -1.401691e-01 1.934889e-02 6.115477e-02 -8.405043e-02 3.200366e-03 6.944126e-04 2.774153e-03 7.377340e-03 3.221994e-03 6.670466e-04 7.724914e-03 -3.099606e-03 -8.444274e-03 1.668137e-02 -1.023032e-02 -5.292944e-03 2.066967e-02 -1.777298e-02 7.716436e-03 4.893576e-03 -1.313444e-02 -2.442840e-03 1.915257e-02 -2.893342e-02 1.447993e-02 6.810864e-03 -2.471367e-02 2.189012e-02 -6.276268e-03 1.370868e-04
<VARIANCE> 75
 3.403823e+01 6.945408e+01 1.071357e+02 9.110059e+01 1.155466e+02 1.224911e+02 1.715471e+02 1.460410e+02 1.749602e+02 2.317046e+02 2.502298e+02 2.637917e+02 2.507335e+02 2.139975e+02 1.963390e+02 1.667075e+02 1.851917e+02 2.084392e+02 2.083326e+02 2.281931e+02 2.445713e+02 2.375424e+02 1.972319e+02 1.352812e+02 3.808772e-02 7.303961e-01 1.418350e+00 2.134066e+00 2.294743e+00 2.876345e+00 3.524602e+00 4.776993e+00 5.485406e+00 7.228106e+00 8.870921e+00 1.044349e+01 1.146554e+01 1.219761e+01 1.083745e+01 1.051883e+01 1.012918e+01 1.058002e+01 1.096524e+01 1.173582e+01 1.228369e+01 1.148079e+01 1.139480e+01 1.068921e+01 8.757339e+00 4.261901e-04 1.388240e-01 2.639506e-01 3.930542e-01 4.379076e-01 5.401759e-01 6.865970e-01 9.218256e-01 1.064007e+00 1.380661e+00 1.708884e+00 1.987056e+00 2.179150e+00 2.292601e+00 2.055151e+00 2.040026e+00 1.960937e+00 2.037441e+00 2.055158e+00 2.144130e+00 2.245788e+00 2.110929e+00 2.076553e+00 1.934533e+00 1.638793e+00 6.702132e-05
<GCONST> 2.889896e+02
<STATE> 3
<MEAN> 75
 -3.833916e+01 -1.392976e+01 -3.227196e+00 -1.246294e+01 -5.483498e+00 7.770250e+00 -9.950476e+00 -4.510398e-01 1.862036e+01 -2.319841e+01 2.624498e+00 1.315160e+01 -2.615810e+01 1.012484e+01 1.370292e+00 -1.436085e+01 -2.041411e+00 1.048163e+01 -2.008845e+01 6.019197e+00 2.752591e-02 -1.870719e+01 9.356230e+00 -7.410478e+00 8.006202e-01 -2.273237e-02 -7.867924e-02 -2.362402e-02 3.776712e-02 -1.360726e-01 8.631848e-02 1.231937e-01 -2.594350e-01 1.386698e-01 2.342641e-01 -5.563058e-01 4.194207e-01 2.326593e-02 -4.465682e-01 4.360144e-01 -1.550899e-02 -3.651864e-01 2.925368e-01 1.300866e-01 -5.276762e-01 5.588680e-01 -1.599409e-01 -2.374440e-01 3.263098e-01 -1.751669e-03 -9.533262e-03 -2.221136e-02 -3.005149e-02 -9.601865e-03 -6.894861e-03 -2.436312e-02 2.215098e-02 1.953609e-02 -3.205151e-02 5.126366e-02 4.361727e-03 -5.004675e-02 7.010207e-02 -3.734500e-02 -1.843859e-02 4.628528e-02 -2.806430e-03 -5.377097e-02 8.565687e-02 -4.140259e-02 -2.470604e-02 8.699305e-02 -6.685451e-02 -2.560756e-03 -5.655193e-04
<VARIANCE> 75
 1.478838e+01 3.885154e+01 6.221437e+01 4.888826e+01 5.584021e+01 8.270618e+01 8.938861e+01 9.304571e+01 1.067318e+02 1.653274e+02 2.327919e+02 2.010261e+02 1.644369e+02 2.151974e+02 1.769894e+02 1.074057e+02 1.537130e+02 1.905847e+02 2.515279e+02 3.066871e+02 2.634400e+02 1.733813e+02 1.647442e+02 1.552599e+02 1.573543e-02 7.354281e-01 1.396573e+00 2.068600e+00 2.022462e+00 2.368142e+00 3.150601e+00 3.706053e+00 4.507513e+00 6.218902e+00 8.187803e+00 9.788242e+00 1.119072e+01 1.140274e+01 9.739401e+00 9.047579e+00 8.720081e+00 9.596972e+00 1.050909e+01 1.068262e+01 1.029610e+01 9.710072e+00 1.006835e+01 8.486254e+00 7.467045e+00 5.002050e-04 1.358539e-01 2.393280e-01 3.835182e-01 3.854129e-01 4.586177e-01 6.123642e-01 7.017615e-01 8.795769e-01 1.199198e+00 1.550822e+00 1.870562e+00 2.091157e+00 2.102749e+00 1.823794e+00 1.758133e+00 1.748235e+00 1.911920e+00 1.947515e+00 1.864076e+00 1.782000e+00 1.679406e+00 1.778089e+00 1.543056e+00 1.384611e+00 7.286705e-05
<GCONST> 2.754380e+02
<STATE> 4
<MEAN> 75
 -4.513473e+01 -2.138670e+01 1.128247e+01 9.845018e-01 -6.811723e-01 -1.354892e+00 -1.545266e+00 -1.406982e+00 -2.180852e+00 -9.292405e+00 4.112634e+00 -3.126472e+00 -5.140346e-01 -3.053141e+00 -1.963650e+00 -2.891250e+00 -2.072687e+00 -3.365385e+00 7.161596e-02 -4.097090e+00 -2.671479e+00 -4.726050e+00 -2.152962e+00 -5.463799e+00 6.550035e-01 -3.543933e-03 -8.522897e-03 -1.689795e-02 1.881145e-02 2.298775e-04 -1.550749e-02 2.963140e-02 -1.688039e-03 -2.646424e-02 1.816409e-02 -3.854581e-03 -2.363504e-02 2.442976e-02 -5.485758e-03 -8.669906e-03 1.145265e-02 7.422355e-04 -1.580422e-02 1.210611e-02 1.115844e-02 -2.794992e-02 2.919353e-02 4.818741e-04 -1.572656e-02 -4.493853e-04 1.188327e-03 1.604984e-03 -5.500191e-05 -1.812356e-03 -2.096166e-03 -8.669567e-04 2.045263e-05 1.910716e-03 1.203431e-03 -3.736104e-04 -2.418440e-04 1.050916e-04 -3.340319e-03 3.237962e-04 1.162927e-03 -3.355999e-04 -4.717444e-04 1.683578e-03 -1.979287e-03 -1.057319e-04 -9.284196e-04 -4.027230e-03 4.020511e-03 1.667111e-04 -1.241844e-05
<VARIANCE> 75
 1.027231e+02 2.074523e+02 2.689495e+02 1.974027e+02 2.762650e+02 2.090807e+02 2.834385e+02 2.924460e+02 2.829276e+02 3.027556e+02 3.069618e+02 3.253133e+02 3.395232e+02 3.015377e+02 2.236498e+02 1.925423e+02 2.190297e+02 2.568635e+02 2.376292e+02 2.242727e+02 2.266535e+02 2.215506e+02 1.734083e+02 1.418117e+02 3.535023e-02 1.459358e+00 1.181823e+00 1.176402e+00 1.503451e+00 1.699140e+00 2.048270e+00 2.532143e+00 3.059612e+00 4.145542e+00 5.791340e+00 8.049615e+00 1.015477e+01 1.109458e+01 9.232988e+00 6.885980e+00 6.870566e+00 9.740350e+00 1.163106e+01 9.667494e+00 7.897081e+00 8.712868e+00 9.005901e+00 7.056594e+00 6.781860e+00 3.348259e-04 2.737953e-01 2.219641e-01 2.207620e-01 2.827003e-01 3.237673e-01 3.930985e-01 4.812868e-01 5.868899e-01 7.888328e-01 1.105753e+00 1.540113e+00 1.946992e+00 2.146805e+00 1.759087e+00 1.313642e+00 1.331202e+00 1.900600e+00 2.242274e+00 1.828846e+00 1.418657e+00 1.581087e+00 1.638085e+00 1.278993e+00 1.255263e+00 5.703080e-05
<GCONST> 2.832433e+02
<STATE> 5
<MEAN> 75
 -3.989343e+01 -2.156906e+01 -1.499757e+01 -1.114436e+01 -1.020308e+01 -4.628922e+00 4.763181e+00 6.349725e-01 3.879320e+00 3.146171e-01 -1.851361e+00 -2.221159e+00 -1.562890e+00 -3.983890e+00 -2.813358e-01 -3.264349e+00 -4.737614e+00 -2.482120e+00 1.368534e+00 -5.407192e+00 -4.227312e+00 -2.606853e+00 -1.179492e+00 -6.029248e+00 5.867593e-01 -3.032481e-03 -1.906118e-02 -8.004891e-02 1.534053e-02 3.022324e-03 -9.479581e-02 5.916561e-02 5.909006e-02 -9.808346e-02 7.522511e-02 6.995402e-02 -1.061245e-01 7.212792e-02 3.037304e-02 -8.877012e-02 4.979094e-02 4.695812e-02 -5.075186e-02 2.126883e-02 6.390313e-02 -7.870055e-02 3.757215e-02 3.780006e-02 -5.138617e-02 -1.333883e-03 1.710075e-03 4.344744e-03 4.733665e-03 1.977068e-03 1.564810e-03 2.569076e-03 -3.646152e-03 -2.066347e-04 2.645621e-04 -1.002102e-02 -1.174187e-04 3.739157e-03 -8.016940e-03 4.871977e-03 2.908352e-04 -6.195692e-03 4.952455e-03 4.223733e-03 -8.117618e-03 3.729656e-03 5.365079e-03 -1.037030e-02 9.663452e-04 3.014165e-03 7.936703e-05
<VARIANCE> 75
 1.802583e+01 3.138601e+01 5.512778e+01 5.390405e+01 7.815755e+01 1.371217e+02 1.339666e+02 1.351965e+02 1.571314e+02 1.533886e+02 1.986944e+02 1.983693e+02 1.753073e+02 1.785900e+02 1.621098e+02 1.565254e+02 1.427868e+02 1.556694e+02 1.528143e+02 1.649747e+02 1.672044e+02 1.490004e+02 1.458553e+02 1.211031e+02 2.813800e-02 5.280522e-01 1.113583e+00 1.758212e+00 2.277221e+00 2.834781e+00 3.483062e+00 4.407882e+00 5.463427e+00 6.793051e+00 8.116558e+00 9.294581e+00 9.988267e+00 1.026558e+01 1.006062e+01 1.011800e+01 1.026672e+01 1.000602e+01 9.995854e+00 9.859125e+00 1.017946e+01 9.761359e+00 9.658238e+00 9.040534e+00 8.220703e+00 2.216226e-04 1.040772e-01 2.167078e-01 3.427591e-01 4.376490e-01 5.598082e-01 6.933126e-01 8.721384e-01 1.084762e+00 1.343385e+00 1.602728e+00 1.855143e+00 1.978353e+00 2.028464e+00 1.997733e+00 2.014366e+00 2.067243e+00 2.014286e+00 2.004542e+00 1.951124e+00 2.031935e+00 1.891434e+00 1.884336e+00 1.774392e+00 1.612373e+00 4.138594e-05
<GCONST> 2.759086e+02
<TRANSP> 6
 0.000000e+00 9.723821e-01 2.761790e-02 0.000000e+00 0.000000e+00 0.000000e+00
 0.000000e+00 9.838005e-01 1.101606e-02 5.183473e-03 0.000000e+00 0.000000e+00
 0.000000e+00 0.000000e+00 9.758889e-01 4.327720e-03 1.978336e-02 0.000000e+00
 0.000000e+00 0.000000e+00 0.000000e+00 9.929787e-01 2.004297e-03 5.016938e-03
 0.000000e+00 0.000000e+00 0.000000e+00 0.000000e+00 9.919890e-01 8.011092e-03
 0.000000e+00 0.000000e+00 0.000000e+00 0.000000e+00 0.000000e+00 0.000000e+00
<ENDHMM>
~h "sil"
<BEGINHMM>
<NUMSTATES> 6
<STATE> 2
<MEAN> 75
 -2.963518e+01 -6.815111e+00 -3.400452e+00 3.380581e+00 1.493341e+00 -4.680811e+00 5.126037e+00 6.309545e+00 1.635876e+00 1.113287e+00 1.009910e+01 5.068894e+00 -3.573182e+00 -5.739537e-01 4.785353e+00 -7.387873e-01 -5.326397e+00 5.032980e-01 4.673315e+00 -4.651959e+00 -6.396489e+00 -2.216827e+00 -3.023862e-01 -6.662702e+00 7.498511e-01 8.218258e-04 6.391072e-03 9.826563e-03 6.102582e-03 -2.047990e-03 1.108738e-03 1.744940e-03 7.682489e-03 4.865353e-03 8.590397e-03 8.248356e-04 -7.822017e-04 2.509299e-03 -5.296040e-04 9.774876e-03 2.290937e-03 -1.806533e-02 -1.573863e-02 -6.353773e-03 1.167708e-03 -8.603307e-03 -8.126228e-03 -1.073602e-02 -1.290417e-02 7.872737e-05 2.979295e-03 4.484128e-03 4.618651e-03 6.164504e-03 1.113874e-02 1.091331e-02 7.987344e-03 9.062244e-03 1.245887e-02 8.407453e-03 6.581456e-03 1.333925e-03 1.501442e-03 5.393799e-03 -6.574482e-04 2.539164e-03 5.933679e-03 7.085909e-04 -5.167304e-03 -4.116632e-03 4.697497e-03 -2.993904e-03 -5.613226e-03 -2.403920e-03 2.108585e-04
<VARIANCE> 75
 4.189702e+00 1.540727e+01 2.113668e+01 2.845046e+01 4.408129e+01 4.708811e+01 6.028689e+01 6.913625e+01 7.766522e+01 8.803315e+01 8.914118e+01 1.006553e+02 1.051355e+02 1.124586e+02 1.133165e+02 1.071808e+02 1.132278e+02 1.030058e+02 1.041664e+02 1.014753e+02 9.961823e+01 9.437015e+01 9.026132e+01 7.938834e+01 1.542294e-02 3.486576e-01 9.354794e-01 1.623507e+00 2.343352e+00 3.379701e+00 4.039503e+00 5.166370e+00 6.130442e+00 7.196594e+00 7.982659e+00 8.594234e+00 9.189912e+00 1.009196e+01 1.084399e+01 1.115660e+01 1.100307e+01 1.098380e+01 1.027708e+01 1.012540e+01 1.026123e+01 9.816814e+00 9.706181e+00 9.136150e+00 8.149423e+00 4.216531e-04 7.041923e-02 1.849832e-01 3.261687e-01 4.764541e-01 6.813753e-01 8.056550e-01 1.038682e+00 1.237616e+00 1.458066e+00 1.618988e+00 1.742597e+00 1.828516e+00 2.026476e+00 2.185751e+00 2.264576e+00 2.235729e+00 2.207754e+00 2.058215e+00 2.007668e+00 2.067703e+00 1.975801e+00 1.954209e+00 1.859220e+00 1.640120e+00 8.540539e-05
<GCONST> 2.628671e+02
<STATE> 3
<MEAN> 75
 -2.670977e+01 -1.046505e+00 2.990863e-01 5.870177e+00 6.988496e+00 2.331269e+00 8.228485e+00 8.106413e+00 7.115872e+00 5.149896e+00 8.274391e+00 4.901344e+00 9.502444e-01 1.353968e+00 2.495162e+00 -1.712513e+00 -4.111886e+00 -1.694327e+00 -1.036119e-01 -5.678782e+00 -5.933045e+00 -4.124606e+00 -2.122741e+00 -5.949523e+00 6.605582e-01 7.406959e-03 1.103795e-02 1.158761e-02 1.270336e-02 1.370796e-02 1.708104e-02 1.881297e-02 1.889083e-02 1.106819e-03 -1.930411e-03 -9.113260e-03 -1.662560e-02 -1.129420e-02 -1.911932e-02 -3.380777e-02 -3.023717e-02 -1.329348e-02 -1.796599e-02 -1.613595e-02 9.225560e-04 6.442905e-03 -1.559738e-03 2.049073e-03 2.303465e-03 4.307076e-04 1.000077e-02 1.541300e-02 1.956988e-02 2.169340e-02 2.052797e-02 1.803375e-02 1.249841e-02 5.965190e-03 -4.461134e-04 -5.665193e-03 -1.232147e-02 -1.471522e-02 -1.665171e-02 -1.735146e-02 -1.449436e-02 -1.366606e-02 -1.586948e-02 -1.204838e-02 -1.226714e-02 -3.056505e-03 1.185536e-03 2.959829e-03 2.842962e-03 2.879730e-03 5.785018e-04
<VARIANCE> 75
 6.434157e+00 2.168901e+01 2.501793e+01 3.762415e+01 4.706001e+01 5.386635e+01 6.393166e+01 7.298475e+01 7.446662e+01 8.229572e+01 9.198697e+01 9.423583e+01 1.029404e+02 1.058851e+02 1.088539e+02 1.073797e+02 1.108922e+02 1.054759e+02 1.043119e+02 9.883570e+01 9.705412e+01 9.151980e+01 8.575366e+01 7.573373e+01 2.694829e-02 4.384657e-01 1.070538e+00 1.833662e+00 2.712914e+00 3.699058e+00 4.575119e+00 5.569642e+00 6.428696e+00 7.036463e+00 8.003698e+00 8.670180e+00 9.253079e+00 9.713604e+00 1.057861e+01 1.116133e+01 1.123967e+01 1.117472e+01 1.077509e+01 1.052020e+01 1.048765e+01 9.984807e+00 9.646062e+00 8.960334e+00 7.912546e+00 1.284770e-03 8.673126e-02 2.052070e-01 3.552019e-01 5.375003e-01 7.372236e-01 9.154323e-01 1.120368e+00 1.296581e+00 1.399513e+00 1.611499e+00 1.741876e+00 1.854181e+00 1.942569e+00 2.116673e+00 2.241532e+00 2.259289e+00 2.242607e+00 2.154241e+00 2.106208e+00 2.102573e+00 2.032522e+00 1.951343e+00 1.794157e+00 1.582351e+00 2.492884e-04
<GCONST> 2.685340e+02
<STATE> 4
<MEAN> 75
 -2.004160e+01 9.500713e+00 1.100608e+01 1.563455e+01 1.612657e+01 1.013282e+01 1.207563e+01 8.617912e+00 6.340966e+00 1.996919e+00 1.744558e+00 -1.659562e+00 -4.230005e+00 -5.116541e+00 -4.711370e+00 -6.992474e+00 -7.342850e+00 -5.079036e+00 -3.180199e+00 -5.955418e+00 -4.228859e+00 -2.844945e+00 -9.542572e-01 -3.706487e+00 7.322678e-01 2.421799e-02 3.674995e-02 4.186817e-02 4.391107e-02 3.781135e-02 3.481093e-02 4.082107e-02 1.606400e-02 -5.735968e-03 -1.154916e-02 -5.316212e-03 -2.029792e-02 -3.337527e-02 -3.371648e-02 -3.059557e-02 -2.521233e-02 -1.945228e-02 -2.055304e-02 -1.725823e-02 -1.650465e-02 1.533092e-03 2.020512e-03 -8.040488e-03 4.839406e-03 1.761587e-03 -2.914231e-02 -4.658346e-02 -5.875059e-02 -6.263893e-02 -5.871089e-02 -4.881495e-02 -3.221339e-02 -1.707710e-02 4.423225e-03 1.989102e-02 4.222050e-02 5.798072e-02 5.499789e-02 6.108694e-02 6.338086e-02 5.403868e-02 3.846591e-02 2.319741e-02 2.165926e-02 5.106288e-03 -1.496373e-02 -1.630218e-02 -1.397087e-02 -1.648911e-02 -1.573049e-03
<VARIANCE> 75
 1.919680e+01 4.189151e+01 3.842825e+01 3.626876e+01 4.183737e+01 4.966391e+01 6.651273e+01 7.970522e+01 9.506261e+01 1.026830e+02 1.019640e+02 1.037163e+02 1.049204e+02 1.032813e+02 1.039333e+02 9.998338e+01 1.030812e+02 9.887704e+01 9.813843e+01 9.354293e+01 8.848419e+01 8.418045e+01 7.690063e+01 7.103692e+01 2.599396e-02 1.296787e+00 2.564646e+00 3.183715e+00 3.436870e+00 3.996001e+00 4.951969e+00 6.002405e+00 7.149549e+00 8.820818e+00 9.840172e+00 1.009382e+01 1.067329e+01 1.074030e+01 1.060664e+01 1.104712e+01 1.102835e+01 1.070758e+01 1.035610e+01 1.021079e+01 9.865247e+00 9.478543e+00 8.979616e+00 8.346482e+00 7.617121e+00 2.068309e-03 2.432473e-01 4.849960e-01 6.096455e-01 6.661095e-01 7.852601e-01 9.968264e-01 1.221433e+00 1.437415e+00 1.785711e+00 2.003550e+00 2.050568e+00 2.159539e+00 2.170074e+00 2.120450e+00 2.266817e+00 2.276155e+00 2.169478e+00 2.118768e+00 2.083957e+00 2.015093e+00 1.926303e+00 1.824261e+00 1.701213e+00 1.554265e+00 3.925433e-04
<GCONST> 2.785150e+02
<STATE> 5
<MEAN> 75
 -2.497274e+01 2.539580e+00 3.429849e+00 8.564523e+00 1.058279e+01 6.468490e+00 1.119717e+01 1.003689e+01 9.017847e+00 6.294887e+00 7.991938e+00 4.897875e+00 1.062839e+00 -2.958289e-01 -1.120199e-01 -3.484098e+00 -5.609050e+00 -4.225737e+00 -2.810544e+00 -6.666728e+00 -6.019186e+00 -4.575894e+00 -2.351148e+00 -5.520401e+00 6.709287e-01 -1.942563e-02 -3.158869e-02 -4.853052e-02 -6.355461e-02 -5.563661e-02 -4.871335e-02 -4.807765e-02 -3.626172e-02 -2.047387e-02 7.849944e-03 2.119781e-02 1.583263e-02 1.338139e-02 2.839191e-02 5.453595e-02 6.277519e-02 3.303665e-02 3.241318e-02 2.571137e-02 1.534191e-02 5.748288e-03 -2.188703e-03 3.035029e-03 -4.590105e-03 -1.859961e-03 1.283801e-02 1.841647e-02 2.181384e-02 2.126461e-02 1.878540e-02 1.440449e-02 4.934288e-03 -3.194745e-03 -1.235638e-02 -1.652327e-02 -2.165849e-02 -3.293806e-02 -2.512111e-02 -2.296783e-02 -1.693938e-02 -1.078322e-02 -6.963649e-03 3.561562e-03 3.008686e-03 4.096719e-03 1.171721e-02 1.097096e-02 1.142791e-02 1.060276e-02 5.703125e-04
<VARIANCE> 75
 6.945875e+00 2.106155e+01 2.612203e+01 3.597137e+01 4.340747e+01 5.112910e+01 5.747822e+01 6.381187e+01 6.871025e+01 7.702441e+01 8.547278e+01 9.306098e+01 1.054116e+02 1.058480e+02 1.095825e+02 1.062350e+02 1.090003e+02 1.030635e+02 1.028672e+02 9.549464e+01 9.130608e+01 8.575549e+01 8.131880e+01 7.571836e+01 2.813377e-02 5.201873e-01 1.225774e+00 2.032508e+00 2.861200e+00 3.667567e+00 4.532534e+00 5.433279e+00 6.184393e+00 6.861340e+00 7.701765e+00 8.530676e+00 9.483715e+00 1.004228e+01 1.062204e+01 1.110368e+01 1.109460e+01 1.109143e+01 1.070896e+01 1.074617e+01 1.030676e+01 9.649389e+00 9.025928e+00 8.686528e+00 8.020679e+00 1.685576e-03 1.000885e-01 2.314300e-01 3.859370e-01 5.515686e-01 7.164423e-01 8.950101e-01 1.077909e+00 1.226844e+00 1.355904e+00 1.535728e+00 1.708205e+00 1.877470e+00 1.995101e+00 2.099669e+00 2.220728e+00 2.224470e+00 2.217322e+00 2.143845e+00 2.169540e+00 2.085443e+00 1.918152e+00 1.777069e+00 1.726818e+00 1.584970e+00 3.248028e-04
<GCONST> 2.684719e+02
<TRANSP> 6
 0.000000e+00 2.522961e-01 7.477039e-01 0.000000e+00 0.000000e+00 0.000000e+00
 0.000000e+00 9.884808e-01 1.151919e-02 0.000000e+00 0.000000e+00 0.000000e+00
 0.000000e+00 0.000000e+00 9.720582e-01 1.511548e-02 1.282630e-02 0.000000e+00
 0.000000e+00 0.000000e+00 0.000000e+00 9.755376e-01 1.901918e-02 5.443256e-03
 0.000000e+00 0.000000e+00 0.000000e+00 0.000000e+00 9.656660e-01 3.433397e-02
 0.000000e+00 0.000000e+00 0.000000e+00 0.000000e+00 0.000000e+00 0.000000e+00
<ENDHMM>
~h "tuk"
<BEGINHMM>
<NUMSTATES> 6
<STATE> 2
<MEAN> 75
 -4.183720e+01 -1.864279e+01 -3.355132e+00 -1.248319e+01 -3.003216e+00 -4.108575e+00 -1.325718e+00 -2.014882e-01 -2.030290e+00 -1.907118e+00 -2.615882e-02 -8.564993e+00 3.564590e+00 -2.375953e+00 -3.694459e+00 -8.840863e-01 -4.984946e+00 -3.827253e+00 3.991743e-01 -5.662081e+00 -1.068174e+00 -7.239820e+00 -1.115642e-01 -5.928433e+00 6.929820e-01 -2.533989e-03 8.989798e-02 2.223572e-01 -9.493786e-02 7.334840e-02 8.606933e-02 -1.487488e-01 3.587168e-02 2.482739e-02 -1.541122e-01 1.599077e-01 -1.154790e-01 2.309312e-02 6.437594e-02 -1.017269e-01 3.051042e-02 -7.795198e-03 -4.179332e-02 9.556803e-03 -5.659068e-02 6.311367e-02 -7.306497e-02 -8.358755e-03 2.593772e-02 4.952104e-03 1.008109e-03 7.863656e-03 4.707920e-03 -7.941765e-04 7.503213e-04 9.132518e-03 -6.879143e-03 -5.979594e-03 1.422776e-02 -1.304114e-02 5.391014e-03 1.619334e-02 -8.702482e-03 -8.515570e-04 -9.981504e-04 7.698202e-04 -1.181582e-02 -1.616171e-03 1.148342e-02 -1.056699e-02 8.310625e-03 -8.930415e-03 -6.907189e-04 7.870398e-03 1.602424e-04
<VARIANCE> 75
 4.800233e+01 6.600788e+01 1.649057e+02 1.087287e+02 1.574809e+02 1.557204e+02 1.697961e+02 1.796197e+02 1.957467e+02 2.721420e+02 2.401567e+02 2.290856e+02 2.432267e+02 2.152144e+02 1.747558e+02 1.481010e+02 1.646480e+02 1.639866e+02 1.659421e+02 1.842896e+02 1.811481e+02 1.657574e+02 1.372862e+02 1.112406e+02 3.938043e-02 8.901679e-01 1.430034e+00 2.321732e+00 2.411736e+00 2.938094e+00 3.559831e+00 4.572079e+00 5.817225e+00 6.837975e+00 8.682352e+00 1.019837e+01 1.159363e+01 1.162835e+01 1.058860e+01 9.727855e+00 9.398482e+00 1.017187e+01 1.069750e+01 1.095528e+01 1.083947e+01 1.019801e+01 9.573777e+00 8.911222e+00 7.952835e+00 4.397519e-04 1.631692e-01 2.542632e-01 3.866676e-01 4.486369e-01 5.358354e-01 6.574560e-01 8.293361e-01 1.060239e+00 1.246761e+00 1.577246e+00 1.834779e+00 2.123335e+00 2.137930e+00 2.001652e+00 1.868630e+00 1.804169e+00 1.967108e+00 2.002815e+00 2.040102e+00 2.022234e+00 1.919007e+00 1.806271e+00 1.710711e+00 1.516674e+00 5.485624e-05
<GCONST> 2.863253e+02
<STATE> 3
<MEAN> 75
 -4.395906e+01 -1.106983e+01 9.922364e+00 -1.657369e+01 -8.378978e+00 1.481881e+01 -4.682522e+00 -1.688993e+01 2.527733e+01 -1.837369e+01 -1.435563e+01 2.326205e+01 -2.141733e+01 -5.233994e-01 5.193802e+00 -7.919977e+00 -4.764650e+00 -2.025449e-01 -6.782399e-01 -1.167943e+01 6.996351e+00 -1.361154e+01 6.686503e-01 -5.438936e+00 8.930122e-01 4.169879e-02 -6.106279e-03 -4.589132e-02 6.037509e-02 -4.684686e-02 2.284066e-02 3.039610e-02 -8.002482e-02 3.303877e-02 5.857371e-02 -1.198430e-01 1.419473e-01 -6.034160e-02 -3.170859e-02 1.071109e-01 -6.436002e-02 -4.504051e-02 7.816698e-02 -3.211122e-02 -3.832020e-02 8.026636e-02 -5.217516e-02 2.095697e-02 -4.094628e-02 -5.295324e-04 -1.639445e-03 -1.459045e-02 -2.036125e-02 1.518747e-03 7.509074e-03 -2.125937e-02 5.137326e-03 3.013429e-02 -4.712785e-02 1.445959e-02 2.759414e-02 -8.303387e-02 5.699709e-02 -1.055363e-02 -2.385503e-02 -3.970310e-04 3.949177e-02 -3.644616e-02 2.053387e-02 1.636468e-02 -3.856226e-02 3.541929e-02 -1.596016e-02 3.622965e-03 -4.187613e-04
<VARIANCE> 75
 2.929008e+01 4.707600e+01 7.532938e+01 5.944809e+01 7.781730e+01 5.799153e+01 1.335072e+02 1.528920e+02 1.486905e+02 3.244370e+02 4.565425e+02 3.054800e+02 3.531797e+02 3.515592e+02 1.604754e+02 1.062644e+02 1.267390e+02 1.926965e+02 3.207379e+02 3.389123e+02 2.134966e+02 1.392073e+02 1.230030e+02 1.008597e+02 4.325670e-03 1.388374e+00 1.384291e+00 1.599006e+00 1.653139e+00 1.833294e+00 2.231546e+00 3.168100e+00 4.246087e+00 5.058197e+00 7.585684e+00 1.053774e+01 1.190004e+01 1.129293e+01 9.752631e+00 7.548903e+00 6.445469e+00 8.716944e+00 9.804583e+00 9.689107e+00 8.826419e+00 8.859442e+00 7.983864e+00 6.516598e+00 5.864684e+00 1.546766e-04 2.760023e-01 2.628182e-01 3.129524e-01 3.136487e-01 3.359888e-01 4.081926e-01 5.608885e-01 7.166816e-01 9.396443e-01 1.273790e+00 1.634487e+00 1.998731e+00 1.949124e+00 1.626777e+00 1.345244e+00 1.247064e+00 1.649230e+00 1.800370e+00 1.694552e+00 1.456250e+00 1.471329e+00 1.444961e+00 1.241472e+00 1.121226e+00 2.540683e-05
<GCONST> 2.703116e+02
<STATE> 4
<MEAN> 75
 -4.116528e+01 -1.287408e+01 2.984306e+00 -1.642907e+01 5.681228e+00 3.820565e+00 -1.290720e+01 8.916965e+00 -1.976927e+00 -1.664816e+01 1.571714e+01 -2.240460e+01 1.015365e+01 1.611840e+00 -1.236858e+01 1.189832e+00 5.224285e-01 -1.406712e+01 1.025899e+01 -9.945635e+00 -5.699444e+00 -7.344920e-01 -7.491257e+00 -1.757603e+00 8.248650e-01 1.555610e-02 -1.869338e-02 -1.676220e-02 2.088368e-03 -2.056845e-02 4.203437e-02 -4.808909e-02 2.218281e-02 1.267811e-01 -1.882779e-01 1.049855e-01 2.567662e-02 -1.868975e-01 1.957904e-01 -5.025119e-02 -6.902618e-02 1.201258e-01 -4.918604e-02 -9.859940e-02 2.188080e-01 -2.329749e-01 1.441361e-01 -9.641065e-04 -1.073266e-01 -6.300561e-04 -7.456572e-03 -1.946688e-02 -1.991123e-02 4.335839e-03 -1.122840e-02 -9.457746e-03 1.989078e-02 -6.228408e-03 8.354428e-03 2.087933e-02 -3.584634e-02 3.866484e-02 -2.168150e-02 -3.105942e-03 2.348327e-02 -8.295903e-03 -1.322494e-02 3.452821e-02 -3.689539e-02 1.296014e-02 1.130973e-02 -2.651611e-02 3.195070e-02 -1.113332e-02 -5.046095e-04
<VARIANCE> 75
 2.523345e+01 5.213630e+01 7.876152e+01 5.893702e+01 8.249565e+01 7.730392e+01 1.065706e+02 9.325701e+01 1.586535e+02 2.007765e+02 1.803075e+02 2.168896e+02 2.597157e+02 2.080490e+02 1.233402e+02 1.268956e+02 1.532146e+02 1.390420e+02 1.782666e+02 2.524499e+02 2.650018e+02 2.135355e+02 1.580523e+02 1.342553e+02 1.108852e-02 1.017953e+00 1.411709e+00 1.577401e+00 1.494247e+00 1.848348e+00 2.494401e+00 3.343042e+00 3.937049e+00 5.327518e+00 7.369022e+00 9.337289e+00 1.072613e+01 1.071761e+01 9.163163e+00 7.145262e+00 7.102697e+00 8.849031e+00 9.667193e+00 9.158030e+00 7.892597e+00 8.434902e+00 8.252149e+00 7.630270e+00 6.553989e+00 3.640849e-04 1.922787e-01 2.527329e-01 2.932289e-01 2.813165e-01 3.504831e-01 4.812824e-01 6.477430e-01 7.506281e-01 1.005519e+00 1.400951e+00 1.783904e+00 2.026452e+00 2.028979e+00 1.747116e+00 1.388744e+00 1.382817e+00 1.758196e+00 1.886987e+00 1.715400e+00 1.416261e+00 1.523651e+00 1.459680e+00 1.399022e+00 1.249958e+00 5.805350e-05
<GCONST> 2.703141e+02
<STATE> 5
<MEAN> 75
 -4.224835e+01 -2.005513e+01 -5.244635e+00 -9.795656e+00 -3.428925e+00 -3.356432e-01 -3.140620e+00 1.776100e+00 5.317789e+00 -1.507248e+01 3.257787e+00 -1.695069e+00 -7.223075e+00 4.810460e+00 -2.510162e+00 -6.099899e+00 3.658181e-01 -3.253120e+00 -3.657349e+00 -2.459788e-01 -4.742114e+00 -6.829901e+00 1.212999e+00 -6.474186e+00 6.026995e-01 -1.398280e-02 -1.086573e-01 -3.087257e-01 1.254922e-01 -4.367709e-02 -1.558201e-01 2.199788e-01 -5.117706e-02 -1.508901e-01 3.354408e-01 -2.487950e-01 9.489804e-02 1.165378e-01 -2.149391e-01 1.755209e-01 3.166236e-02 -7.777401e-02 5.229644e-02 6.564500e-02 -1.093683e-01 1.616452e-01 -6.664778e-02 -2.242034e-02 1.252950e-01 -5.988221e-03 7.229680e-03 1.530470e-02 1.289123e-02 -5.987371e-03 7.767119e-03 8.099222e-03 -8.585457e-03 -3.762541e-03 -5.996868e-03 -9.408924e-03 1.522784e-02 -1.028774e-02 1.477917e-02 1.520905e-03 -7.408974e-03 5.682423e-03 -1.313416e-03 -1.949513e-02 1.536934e-02 -1.249720e-03 -2.346290e-03 1.323742e-02 -1.889667e-02 4.486464e-03 4.302025e-04
<VARIANCE> 75
 6.075229e+01 8.015532e+01 2.147059e+02 1.339192e+02 1.543113e+02 2.018878e+02 1.760901e+02 1.513843e+02 2.025599e+02 2.225040e+02 2.198834e+02 2.202781e+02 2.277973e+02 1.934156e+02 1.725907e+02 1.544396e+02 1.479705e+02 1.590865e+02 1.805457e+02 1.678226e+02 1.650891e+02 1.571399e+02 1.304278e+02 1.128085e+02 4.330139e-02 9.421061e-01 1.422744e+00 1.896465e+00 2.081410e+00 2.610746e+00 3.282664e+00 4.118516e+00 4.931328e+00 6.186493e+00 7.569032e+00 9.024373e+00 1.001804e+01 1.057167e+01 9.970387e+00 9.236641e+00 9.107988e+00 1.017715e+01 9.954352e+00 1.003122e+01 9.064169e+00 9.036918e+00 9.115239e+00 8.049588e+00 7.458545e+00 3.068118e-04 1.767395e-01 2.589956e-01 3.299162e-01 3.787180e-01 4.801010e-01 6.247327e-01 7.690264e-01 9.331473e-01 1.187822e+00 1.431690e+00 1.706558e+00 1.869463e+00 2.027134e+00 1.939558e+00 1.812938e+00 1.779046e+00 2.001900e+00 1.914222e+00 1.938940e+00 1.743444e+00 1.749613e+00 1.753086e+00 1.543322e+00 1.461373e+00 3.978814e-05
<GCONST> 2.822357e+02
<TRANSP> 6
 0.000000e+00 1.000000e+00 0.000000e+00 0.000000e+00 0.000000e+00 0.000000e+00
 0.000000e+00 9.812941e-01 5.225455e-03 1.348040e-02 0.000000e+00 0.000000e+00
 0.000000e+00 0.000000e+00 9.856293e-01 1.582565e-03 1.278821e-02 0.000000e+00
 0.000000e+00 0.000000e+00 0.000000e+00 9.825594e-01 1.494901e-02 2.491503e-03
 0.000000e+00 0.000000e+00 0.000000e+00 0.000000e+00 9.777145e-01 2.228545e-02
 0.000000e+00 0.000000e+00 0.000000e+00 0.000000e+00 0.000000e+00 0.000000e+00
<ENDHMM>
