~o
<STREAMINFO> 1 75
<VECSIZE> 75<NULLD><MFCC_E_D_A><DIAGC>
~v "varFloor1"
<VARIANCE> 75
 9.353815e-01 1.412901e+00 2.051255e+00 1.706702e+00 1.649679e+00 1.490410e+00 1.899259e+00 1.958939e+00 2.237319e+00 2.771364e+00 2.675530e+00 3.114929e+00 2.921553e+00 2.212744e+00 1.777925e+00 1.527027e+00 1.572521e+00 1.796969e+00 2.021254e+00 2.085924e+00 2.005567e+00 1.769575e+00 1.482972e+00 1.174568e+00 3.764222e-04 9.573253e-03 1.467518e-02 2.089469e-02 2.434021e-02 2.953468e-02 3.551516e-02 4.559641e-02 5.489440e-02 6.806162e-02 8.599170e-02 1.004813e-01 1.117829e-01 1.158768e-01 1.067727e-01 9.853057e-02 9.560079e-02 1.025632e-01 1.085799e-01 1.057092e-01 1.019866e-01 9.939798e-02 9.764630e-02 8.763707e-02 7.801250e-02 6.471896e-06 1.798045e-03 2.666333e-03 3.746899e-03 4.498734e-03 5.515349e-03 6.764251e-03 8.580574e-03 1.034852e-02 1.285090e-02 1.599341e-02 1.877122e-02 2.083515e-02 2.167761e-02 2.025784e-02 1.909428e-02 1.876818e-02 2.014930e-02 2.096609e-02 2.005835e-02 1.918081e-02 1.861869e-02 1.844832e-02 1.670199e-02 1.506538e-02 1.071891e-06
